svm_type c_svc
kernel_type rbf
gamma 0.5
nr_class 2
total_sv 26
rho 0.5136932214074204
label 0 1
nr_sv 9 17
SV
1.0 1:21.0 2:38.0 
1.0 1:16.0 2:21.0 
1.0 1:26.0 2:34.0 
1.0 1:20.0 2:40.0 
1.0 1:23.0 2:51.0 
1.0 1:20.0 2:51.0 
1.0 1:20.0 2:66.0 
1.0 1:27.0 2:75.0 
1.0 1:23.0 2:64.0 
-0.4879700708035441 1:26.0 2:66.0 
-0.48615002804204677 1:14.0 2:48.0 
-0.48558527522628375 1:7.0 2:50.0 
-0.4493412129328262 1:11.0 2:38.0 
-1.0 1:20.0 2:38.0 
-0.30248204990466043 1:17.0 2:43.0 
-0.4865040334458889 1:17.0 2:27.0 
-0.9914092920154162 1:20.0 2:51.0 
-0.5060141601263846 1:20.0 2:51.0 
-0.48522638289128656 1:10.0 2:48.0 
-0.4863126436175502 1:14.0 2:53.0 
-0.486504024208439 1:8.0 2:27.0 
-0.44934121286505485 1:13.0 2:37.0 
-0.30298513745096556 1:16.0 2:43.0 
-0.6218055120334784 1:24.0 2:34.0 
-0.4861188841637351 1:30.0 2:51.0 
-0.48625008027243954 1:26.0 2:54.0 
